digraph Tree {
node [shape=box] ;
0 [label="X[27] <= 0.5\ngini = 0.499\nsamples = 5686\nvalue = [2948, 2738]"] ;
1 [label="X[53] <= 0.5\ngini = 0.289\nsamples = 3219\nvalue = [565, 2654]"] ;
0 -> 1 [labeldistance=2.5, labelangle=45, headlabel="True"] ;
2 [label="X[55] <= 0.5\ngini = 0.132\nsamples = 2832\nvalue = [202, 2630]"] ;
1 -> 2 ;
3 [label="X[101] <= 0.5\ngini = 0.051\nsamples = 2701\nvalue = [71, 2630]"] ;
2 -> 3 ;
4 [label="X[22] <= 0.5\ngini = 0.024\nsamples = 2662\nvalue = [32, 2630]"] ;
3 -> 4 ;
5 [label="X[25] <= 0.5\ngini = 0.011\nsamples = 2645\nvalue = [15, 2630]"] ;
4 -> 5 ;
6 [label="gini = 0.0\nsamples = 2630\nvalue = [0, 2630]"] ;
5 -> 6 ;
7 [label="gini = 0.0\nsamples = 15\nvalue = [15, 0]"] ;
5 -> 7 ;
8 [label="gini = 0.0\nsamples = 17\nvalue = [17, 0]"] ;
4 -> 8 ;
9 [label="gini = 0.0\nsamples = 39\nvalue = [39, 0]"] ;
3 -> 9 ;
10 [label="gini = 0.0\nsamples = 131\nvalue = [131, 0]"] ;
2 -> 10 ;
11 [label="X[94] <= 0.5\ngini = 0.116\nsamples = 387\nvalue = [363, 24]"] ;
1 -> 11 ;
12 [label="gini = 0.0\nsamples = 24\nvalue = [0, 24]"] ;
11 -> 12 ;
13 [label="gini = 0.0\nsamples = 363\nvalue = [363, 0]"] ;
11 -> 13 ;
14 [label="X[100] <= 0.5\ngini = 0.066\nsamples = 2467\nvalue = [2383, 84]"] ;
0 -> 14 [labeldistance=2.5, labelangle=-45, headlabel="False"] ;
15 [label="X[81] <= 0.5\ngini = 0.025\nsamples = 2413\nvalue = [2383, 30]"] ;
14 -> 15 ;
16 [label="X[63] <= 0.5\ngini = 0.012\nsamples = 2397\nvalue = [2383, 14]"] ;
15 -> 16 ;
17 [label="X[7] <= 0.5\ngini = 0.004\nsamples = 2374\nvalue = [2369, 5]"] ;
16 -> 17 ;
18 [label="X[1] <= 0.5\ngini = 0.003\nsamples = 2372\nvalue = [2369, 3]"] ;
17 -> 18 ;
19 [label="X[35] <= 0.5\ngini = 0.002\nsamples = 2371\nvalue = [2369, 2]"] ;
18 -> 19 ;
20 [label="X[21] <= 0.5\ngini = 0.029\nsamples = 134\nvalue = [132, 2]"] ;
19 -> 20 ;
21 [label="gini = 0.0\nsamples = 132\nvalue = [132, 0]"] ;
20 -> 21 ;
22 [label="gini = 0.0\nsamples = 2\nvalue = [0, 2]"] ;
20 -> 22 ;
23 [label="gini = 0.0\nsamples = 2237\nvalue = [2237, 0]"] ;
19 -> 23 ;
24 [label="gini = 0.0\nsamples = 1\nvalue = [0, 1]"] ;
18 -> 24 ;
25 [label="gini = 0.0\nsamples = 2\nvalue = [0, 2]"] ;
17 -> 25 ;
26 [label="X[89] <= 0.5\ngini = 0.476\nsamples = 23\nvalue = [14, 9]"] ;
16 -> 26 ;
27 [label="gini = 0.0\nsamples = 9\nvalue = [0, 9]"] ;
26 -> 27 ;
28 [label="gini = 0.0\nsamples = 14\nvalue = [14, 0]"] ;
26 -> 28 ;
29 [label="gini = 0.0\nsamples = 16\nvalue = [0, 16]"] ;
15 -> 29 ;
30 [label="gini = 0.0\nsamples = 54\nvalue = [0, 54]"] ;
14 -> 30 ;
}